digraph Tree {
node [shape=box, style="filled, rounded", color="black", fontname="helvetica"] ;
edge [fontname="helvetica"] ;
0 [label=<age_bin &le; 0.5<br/>gini = 0.747<br/>samples = 11244<br/>value = [2625, 3028, 2444, 3147]<br/>class = 4>, fillcolor="#fefcff"] ;
1 [label=<photoamt_11 &le; 0.5<br/>gini = 0.74<br/>samples = 5962<br/>value = [1660, 1887, 1321, 1094]<br/>class = 2>, fillcolor="#f5fef5"] ;
0 -> 1 [labeldistance=2.5, labelangle=45, headlabel="True"] ;
2 [label=<type &le; 1.5<br/>gini = 0.557<br/>samples = 119<br/>value = [24, 9, 12, 74]<br/>class = 4>, fillcolor="#ea97f1"] ;
1 -> 2 ;
3 [label=<color_pattern &le; 0.5<br/>gini = 0.617<br/>samples = 54<br/>value = [15, 5, 5, 29]<br/>class = 4>, fillcolor="#f1b8f6"] ;
2 -> 3 ;
4 [label=<gini = 0.645<br/>samples = 22<br/>value = [10, 2, 2, 8]<br/>class = 1>, fillcolor="#fbede3"] ;
3 -> 4 ;
5 [label=<gini = 0.527<br/>samples = 32<br/>value = [5, 3, 3, 21]<br/>class = 4>, fillcolor="#e78af0"] ;
3 -> 5 ;
6 [label=<color_pattern &le; 0.5<br/>gini = 0.486<br/>samples = 65<br/>value = [9, 4, 7, 45]<br/>class = 4>, fillcolor="#e580ee"] ;
2 -> 6 ;
7 [label=<gini = 0.231<br/>samples = 15<br/>value = [2, 0, 0, 13]<br/>class = 4>, fillcolor="#dd57e9"] ;
6 -> 7 ;
8 [label=<gini = 0.545<br/>samples = 50<br/>value = [7, 4, 7, 32]<br/>class = 4>, fillcolor="#e88cf0"] ;
6 -> 8 ;
9 [label=<type &le; 1.5<br/>gini = 0.738<br/>samples = 5843<br/>value = [1636, 1878, 1309, 1020]<br/>class = 2>, fillcolor="#f4fef4"] ;
1 -> 9 ;
10 [label=<photoamt_11 &le; 5.5<br/>gini = 0.74<br/>samples = 3193<br/>value = [711, 1054, 804, 624]<br/>class = 2>, fillcolor="#ecfcea"] ;
9 -> 10 ;
11 [label=<gini = 0.741<br/>samples = 2569<br/>value = [604, 846, 570, 549]<br/>class = 2>, fillcolor="#e8fce7"] ;
10 -> 11 ;
12 [label=<gini = 0.704<br/>samples = 624<br/>value = [107, 208, 234, 75]<br/>class = 3>, fillcolor="#f3f9fd"] ;
10 -> 12 ;
13 [label=<photoamt_11 &le; 10.5<br/>gini = 0.723<br/>samples = 2650<br/>value = [925, 824, 505, 396]<br/>class = 1>, fillcolor="#fef8f4"] ;
9 -> 13 ;
14 [label=<gini = 0.72<br/>samples = 2488<br/>value = [895, 769, 441, 383]<br/>class = 1>, fillcolor="#fdf6f0"] ;
13 -> 14 ;
15 [label=<gini = 0.688<br/>samples = 162<br/>value = [30, 55, 64, 13]<br/>class = 3>, fillcolor="#eef7fd"] ;
13 -> 15 ;
16 [label=<breed_type &le; 0.5<br/>gini = 0.724<br/>samples = 5282<br/>value = [965, 1141, 1123, 2053]<br/>class = 4>, fillcolor="#f6d3f9"] ;
0 -> 16 [labeldistance=2.5, labelangle=-45, headlabel="False"] ;
17 [label=<type &le; 1.5<br/>gini = 0.744<br/>samples = 1217<br/>value = [374, 316, 243, 284]<br/>class = 1>, fillcolor="#fdf7f2"] ;
16 -> 17 ;
18 [label=<age_bin &le; 2.5<br/>gini = 0.728<br/>samples = 801<br/>value = [283, 226, 167, 125]<br/>class = 1>, fillcolor="#fcf3eb"] ;
17 -> 18 ;
19 [label=<gini = 0.716<br/>samples = 691<br/>value = [266, 193, 137, 95]<br/>class = 1>, fillcolor="#fbede2"] ;
18 -> 19 ;
20 [label=<gini = 0.737<br/>samples = 110<br/>value = [17, 33, 30, 30]<br/>class = 2>, fillcolor="#f8fef8"] ;
18 -> 20 ;
21 [label=<photoamt_11 &le; 6.5<br/>gini = 0.726<br/>samples = 416<br/>value = [91, 90, 76, 159]<br/>class = 4>, fillcolor="#f7d6fa"] ;
17 -> 21 ;
22 [label=<gini = 0.716<br/>samples = 384<br/>value = [83, 80, 65, 156]<br/>class = 4>, fillcolor="#f5cff9"] ;
21 -> 22 ;
23 [label=<gini = 0.713<br/>samples = 32<br/>value = [8, 10, 11, 3]<br/>class = 3>, fillcolor="#f6fbfe"] ;
21 -> 23 ;
24 [label=<type &le; 1.5<br/>gini = 0.701<br/>samples = 4065<br/>value = [591, 825, 880, 1769]<br/>class = 4>, fillcolor="#f4c8f8"] ;
16 -> 24 ;
25 [label=<photoamt_11 &le; 3.5<br/>gini = 0.662<br/>samples = 2075<br/>value = [210, 356, 486, 1023]<br/>class = 4>, fillcolor="#f1bcf6"] ;
24 -> 25 ;
26 [label=<gini = 0.636<br/>samples = 1257<br/>value = [137, 192, 254, 674]<br/>class = 4>, fillcolor="#eeacf4"] ;
25 -> 26 ;
27 [label=<gini = 0.689<br/>samples = 818<br/>value = [73, 164, 232, 349]<br/>class = 4>, fillcolor="#f7d7fa"] ;
25 -> 27 ;
28 [label=<photoamt_11 &le; 5.5<br/>gini = 0.728<br/>samples = 1990<br/>value = [381, 469, 394, 746]<br/>class = 4>, fillcolor="#f8dbfa"] ;
24 -> 28 ;
29 [label=<gini = 0.721<br/>samples = 1682<br/>value = [330, 378, 308, 666]<br/>class = 4>, fillcolor="#f6d3f9"] ;
28 -> 29 ;
30 [label=<gini = 0.74<br/>samples = 308<br/>value = [51, 91, 86, 80]<br/>class = 2>, fillcolor="#fbfefb"] ;
28 -> 30 ;
}
